{
  "type": "LSTM",
  "options": {
    "inputSize": 18,
    "inputRange": 18,
    "hiddenLayers": [
      20,
      20
    ],
    "outputSize": 18,
    "decayRate": 0.999,
    "smoothEps": 1e-8,
    "regc": 0.000001,
    "clipval": 5,
    "maxPredictionLength": 100,
    "dataFormatter": {
      "indexTable": {
        "red": 0,
        "white": 1,
        "black": 2,
        "r": 3,
        "e": 4,
        "d": 5,
        "b": 6,
        "l": 7,
        "a": 8,
        "c": 9,
        "k": 10,
        "w": 11,
        "h": 12,
        "i": 13,
        "t": 14,
        "stop-input": 15,
        "start-output": 16,
        "unrecognized": 17
      },
      "characterTable": {
        "0": "red",
        "1": "white",
        "2": "black",
        "3": "r",
        "4": "e",
        "5": "d",
        "6": "b",
        "7": "l",
        "8": "a",
        "9": "c",
        "10": "k",
        "11": "w",
        "12": "h",
        "13": "i",
        "14": "t",
        "15": null,
        "16": null,
        "17": null
      },
      "values": [
        {
          "input": [
            "red",
            "white",
            "black"
          ],
          "output": "red"
        },
        {
          "input": [
            "red",
            "white",
            "black"
          ],
          "output": "red"
        },
        {
          "input": [
            "red",
            "white",
            "black"
          ],
          "output": "black"
        },
        {
          "input": [
            "red",
            "white",
            "black"
          ],
          "output": "red"
        },
        {
          "input": [
            "red",
            "white",
            "black"
          ],
          "output": "black"
        },
        {
          "input": [
            "red",
            "white",
            "black"
          ],
          "output": "white"
        },
        {
          "input": [
            "red",
            "white",
            "black"
          ],
          "output": "black"
        },
        {
          "input": [
            "red",
            "white",
            "black"
          ],
          "output": "black"
        },
        {
          "input": [
            "red",
            "white",
            "black"
          ],
          "output": "red"
        },
        {
          "input": [
            "red",
            "white",
            "black"
          ],
          "output": "white"
        },
        {
          "input": [
            "red",
            "white",
            "black"
          ],
          "output": "red"
        },
        {
          "input": [
            "red",
            "white",
            "black"
          ],
          "output": "white"
        },
        {
          "input": [
            "red",
            "white",
            "black"
          ],
          "output": "white"
        },
        {
          "input": [
            "red",
            "white",
            "black"
          ],
          "output": "black"
        },
        {
          "input": [
            "red",
            "white",
            "black"
          ],
          "output": "white"
        },
        {
          "input": [
            "red",
            "white",
            "black"
          ],
          "output": "black"
        },
        {
          "input": [
            "red",
            "white",
            "black"
          ],
          "output": "black"
        },
        {
          "input": [
            "red",
            "white",
            "black"
          ],
          "output": "red"
        },
        {
          "input": [
            "red",
            "white",
            "black"
          ],
          "output": "black"
        },
        {
          "input": [
            "red",
            "white",
            "black"
          ],
          "output": "black"
        },
        {
          "input": [
            "red",
            "white",
            "black"
          ],
          "output": "black"
        }
      ],
      "characters": [
        "red",
        "white",
        "black",
        "r",
        "e",
        "d",
        "b",
        "l",
        "a",
        "c",
        "k",
        "w",
        "h",
        "i",
        "t",
        "stop-input",
        "start-output",
        "unrecognized"
      ],
      "specialIndexes": [
        15,
        16,
        17
      ]
    }
  },
  "trainOpts": {
    "iterations": 10,
    "errorThresh": 0.005,
    "log": false,
    "logPeriod": 10,
    "learningRate": 0.01,
    "callbackPeriod": 10,
    "timeout": "Infinity"
  },
  "input": {
    "rows": 19,
    "columns": 18,
    "weights": [
      -0.03355034813284874,
      -0.6211816668510437,
      1.0548694133758545,
      1.1075668334960938,
      0.24898947775363922,
      -0.010951803997159004,
      0.2658410966396332,
      -0.3393382430076599,
      0.21649540960788727,
      -0.31875479221343994,
      -0.44163742661476135,
      -0.12578541040420532,
      -0.06355578452348709,
      -0.13638360798358917,
      -0.614681601524353,
      0.3719497323036194,
      0.0850284993648529,
      -0.47346025705337524,
      -0.07924029231071472,
      0.1364443153142929,
      -0.5328189730644226,
      -0.9297204613685608,
      0.7510572075843811,
      -0.8748834729194641,
      -0.07775402069091797,
      0.7417791485786438,
      0.7211445569992065,
      -0.7860982418060303,
      0.6368485689163208,
      -0.5845609903335571,
      -0.6423394680023193,
      -0.8790603280067444,
      0.3817724287509918,
      -0.1938989907503128,
      -0.4864818751811981,
      0.31953558325767517,
      0.08564051985740662,
      0.09573711454868317,
      -0.8136759400367737,
      -0.5956315994262695,
      0.650640070438385,
      -0.7150523662567139,
      -0.1287781149148941,
      0.9083958268165588,
      0.7154262065887451,
      -0.6607598066329956,
      0.49245575070381165,
      -0.7481741309165955,
      -0.7542241215705872,
      -0.8117997050285339,
      0.603188157081604,
      0.13586001098155975,
      -0.741387128829956,
      0.11913099884986877,
      -0.14259974658489227,
      0.21427811682224274,
      -0.7758423089981079,
      -1.2705615758895874,
      0.6961782574653625,
      -0.7739673852920532,
      -0.15888170897960663,
      0.7978904247283936,
      0.8645858764648438,
      -0.8412285447120667,
      0.6073958873748779,
      -0.7321071624755859,
      -0.7836242914199829,
      -0.8936407566070557,
      0.6886890530586243,
      -0.042623624205589294,
      -0.6905037760734558,
      0.2893303334712982,
      -0.9276465177536011,
      1.0213016271591187,
      -0.9116835594177246,
      -0.9952277541160583,
      1.0248064994812012,
      -1.1411715745925903,
      -0.9269481897354126,
      0.905174732208252,
      0.9540826678276062,
      -0.8928853273391724,
      0.9608467221260071,
      -1.0007383823394775,
      -0.9517565965652466,
      -0.9921771287918091,
      0.8936890363693237,
      -1.14104425907135,
      -0.9217621088027954,
      -1.1539201736450195,
      -0.4916161298751831,
      0.527838945388794,
      -0.8451247811317444,
      -0.8752211332321167,
      0.7820835113525391,
      -0.9424220323562622,
      -0.6329951286315918,
      0.7960950136184692,
      0.8780168890953064,
      -0.7470878958702087,
      0.6512209177017212,
      -0.7663759589195251,
      -0.6376490592956543,
      -0.7886000275611877,
      0.7219275832176208,
      -0.6740717887878418,
      -0.5665269494056702,
      -0.011470121331512928,
      -1.1004120111465454,
      0.965552806854248,
      -1.0980979204177856,
      -1.1085994243621826,
      1.1688079833984375,
      -1.0576369762420654,
      -1.030900239944458,
      0.9649357795715332,
      1.1579502820968628,
      -1.1195886135101318,
      1.069686770439148,
      -1.1518748998641968,
      -1.035944938659668,
      -1.0915961265563965,
      1.0181512832641602,
      -1.0158734321594238,
      -1.1998331546783447,
      -1.1205755472183228,
      0.7248674631118774,
      -0.6212095618247986,
      1.3472609519958496,
      1.7906111478805542,
      -1.381288766860962,
      1.8342078924179077,
      1.0081768035888672,
      -1.4749459028244019,
      -1.2769818305969238,
      1.4692323207855225,
      -2.12994384765625,
      1.1531420946121216,
      1.086333990097046,
      1.6297310590744019,
      -2.052677631378174,
      1.7073670625686646,
      0.8685522079467773,
      -0.3406922519207001,
      -1.1337136030197144,
      1.5304464101791382,
      0.1562105268239975,
      -0.5264261960983276,
      -0.739210307598114,
      1.4752371311187744,
      -1.7622395753860474,
      -0.6229944229125977,
      -1.1067910194396973,
      0.798607587814331,
      -0.7204607725143433,
      0.578482449054718,
      0.42001551389694214,
      1.1359889507293701,
      -0.7326196432113647,
      -0.43463921546936035,
      0.15478679537773132,
      -1.6571013927459717,
      1.0359172821044922,
      -1.1703630685806274,
      -0.5722845196723938,
      0.4204505681991577,
      0.3446943163871765,
      0.21549463272094727,
      1.1781103610992432,
      0.20014670491218567,
      0.20166929066181183,
      -0.08155005425214767,
      -0.2165282517671585,
      -0.4679679572582245,
      -0.5702665448188782,
      0.0886392816901207,
      -0.10555420070886612,
      1.2297914028167725,
      -0.8564817309379578,
      -0.25113171339035034,
      -1.0807379484176636,
      1.1835496425628662,
      0.5828353762626648,
      0.5605447888374329,
      -1.0883296728134155,
      1.5247608423233032,
      -1.120124101638794,
      -1.1121207475662231,
      -1.042360544204712,
      1.1026556491851807,
      -1.0702000856399536,
      1.0577828884124756,
      0.9420964121818542,
      1.256580114364624,
      -0.4356488287448883,
      -0.7745394110679626,
      0.629115104675293,
      -0.6737110614776611,
      0.5747592449188232,
      -0.7848501801490784,
      -0.7170953750610352,
      -1.0367990732192993,
      1.0306026935577393,
      -1.3030012845993042,
      0.32927459478378296,
      1.1425012350082397,
      0.9982470870018005,
      -1.0087138414382935,
      1.0904821157455444,
      -0.9440484642982483,
      -0.6418407559394836,
      -1.3738983869552612,
      1.0674448013305664,
      0.044599179178476334,
      -0.4225003719329834,
      1.6260395050048828,
      0.5290514230728149,
      -0.499803364276886,
      0.0030972971580922604,
      -0.7882960438728333,
      -1.636616826057434,
      1.300662636756897,
      0.5460997223854065,
      -1.1281691789627075,
      -1.5920354127883911,
      1.611731767654419,
      -0.5664767622947693,
      1.6470966339111328,
      1.5989354848861694,
      1.3936289548873901,
      0.9728265404701233,
      0.17367011308670044,
      1.4875091314315796,
      0.8318275213241577,
      1.1961218118667603,
      -1.2508563995361328,
      1.7990790605545044,
      1.4985617399215698,
      -1.2278066873550415,
      1.0413105487823486,
      1.2203965187072754,
      -1.38527250289917,
      -1.1835989952087402,
      1.2671219110488892,
      -1.5373870134353638,
      1.1874736547470093,
      1.2745851278305054,
      1.1492916345596313,
      -1.650588870048523,
      1.2184332609176636,
      1.4193731546401978,
      1.1596335172653198,
      0.7319474816322327,
      -0.6437478065490723,
      0.7278934717178345,
      1.0467917919158936,
      -1.0885227918624878,
      1.1907758712768555,
      0.7483332753181458,
      -1.1634446382522583,
      -1.1661862134933472,
      1.2804601192474365,
      -1.2601302862167358,
      1.138492226600647,
      0.988442599773407,
      1.1074036359786987,
      -0.7768781185150146,
      0.5885502099990845,
      0.9140761494636536,
      0.7675995230674744,
      1.61634361743927,
      -1.375702977180481,
      0.8329295516014099,
      1.1255744695663452,
      -1.2464311122894287,
      1.3008376359939575,
      1.2677173614501953,
      -1.0521574020385742,
      -1.3282217979431152,
      1.4928076267242432,
      -1.0425478219985962,
      1.2151161432266235,
      1.2033545970916748,
      1.3719120025634766,
      -0.7846783995628357,
      1.24103581905365,
      1.1449472904205322,
      1.1702208518981934,
      -0.07478776574134827,
      0.2729846239089966,
      -0.5634377598762512,
      -1.0387258529663086,
      0.6096156239509583,
      -0.8984073400497437,
      -0.14946195483207703,
      0.617871105670929,
      0.6909406781196594,
      -0.7434500455856323,
      0.7864620089530945,
      -0.5845431685447693,
      -0.6513165831565857,
      -0.7767766118049622,
      0.7108393311500549,
      -0.2027052640914917,
      -0.5107267498970032,
      0.14409369230270386,
      0.5951483249664307,
      -0.5189791321754456,
      -0.17902922630310059,
      0.6247396469116211,
      -0.06665541231632233,
      0.44784078001976013,
      1.0734554529190063,
      -0.15172544121742249,
      -0.13235922157764435,
      0.23135527968406677,
      -0.37699466943740845,
      -0.08172295242547989,
      -0.10244335979223251,
      0.37553858757019043,
      -0.35243546962738037,
      0.7493374943733215,
      -0.46944519877433777,
      -0.6437926888465881,
      0.007841059006750584,
      -0.02507873624563217,
      0.06524110585451126,
      -0.00444788159802556,
      -0.06088262423872948,
      0.07085064798593521,
      0.03178112581372261,
      -0.016192927956581116,
      0.033462394028902054,
      0.07159414142370224,
      -0.013761947862803936,
      0.07020237296819687,
      -0.0469784252345562,
      -0.026077520102262497,
      0.021648375317454338,
      -0.06672114878892899,
      -0.07305490970611572,
      -0.00838820543140173
    ]
  },
  "hiddenLayers": [
    {
      "inputMatrix": {
        "rows": 20,
        "columns": 18,
        "weights": [
          -0.1624661087989807,
          0.29152342677116394,
          -0.42492732405662537,
          -0.7516959309577942,
          0.37353673577308655,
          -0.7095247507095337,
          -0.3759424090385437,
          0.6364903450012207,
          0.44713279604911804,
          -0.32538068294525146,
          0.7210531830787659,
          -0.4019034504890442,
          -0.3087550401687622,
          -0.5729163885116577,
          0.5896348357200623,
          -0.5184789896011353,
          -0.18787801265716553,
          0.5814617276191711,
          -0.21952849626541138,
          0.02467695251107216,
          0.8608070611953735,
          0.3343692719936371,
          -0.7879487872123718,
          0.8836860656738281,
          -0.18363945186138153,
          -0.8640738129615784,
          -0.8395610451698303,
          0.7353790998458862,
          -0.513948380947113,
          0.7754492163658142,
          0.7861717939376831,
          0.8533506393432617,
          -0.3659842312335968,
          -0.04517354071140289,
          0.7120462656021118,
          0.24888983368873596,
          -0.5241524577140808,
          -0.080828957259655,
          1.0619794130325317,
          1.563889741897583,
          0.3618529438972473,
          -0.1049550473690033,
          -0.5083163380622864,
          -0.31234654784202576,
          0.46331584453582764,
          -0.45359694957733154,
          -0.6912944316864014,
          -0.2705816924571991,
          -0.10054852813482285,
          -0.1432643085718155,
          -1.4191690683364868,
          0.23022103309631348,
          0.06824856251478195,
          -1.2121765613555908,
          0.11949706822633743,
          0.19622085988521576,
          -0.8060811161994934,
          -0.6078788042068481,
          0.5288070440292358,
          -0.6531296372413635,
          -0.12792274355888367,
          0.7337911128997803,
          0.5434015393257141,
          -0.4647187292575836,
          0.6634422540664673,
          -0.6226053237915039,
          -0.3812596797943115,
          -0.6665245890617371,
          0.6415669322013855,
          -0.20756040513515472,
          -0.3436517119407654,
          0.532731294631958,
          0.13471850752830505,
          0.03214365616440773,
          0.2049618512392044,
          -0.15574674308300018,
          -0.5076625347137451,
          0.4968034029006958,
          -0.05430355668067932,
          -0.42821863293647766,
          -0.6466551423072815,
          0.47200122475624084,
          -0.17269331216812134,
          0.4973306357860565,
          0.5365726947784424,
          0.6491536498069763,
          -0.04856910929083824,
          -0.02696402743458748,
          0.4334653317928314,
          0.4457634389400482,
          0.02004413865506649,
          0.12854859232902527,
          -0.015297243371605873,
          -0.03386630490422249,
          -0.8013795614242554,
          0.7296434640884399,
          -0.2629185914993286,
          -0.5184985399246216,
          -0.7973439693450928,
          0.836025595664978,
          -0.3233327269554138,
          0.6602708697319031,
          0.5650479197502136,
          0.7911552786827087,
          -0.19473306834697723,
          -0.09750720858573914,
          0.48841893672943115,
          0.20591649413108826,
          -0.28786301612854004,
          0.3241521716117859,
          -0.5931046009063721,
          -0.7003841996192932,
          0.2503921091556549,
          -0.5740375518798828,
          -0.34850013256073,
          0.6723202466964722,
          0.45272669196128845,
          -0.3112633228302002,
          0.781169056892395,
          -0.306333065032959,
          -0.27626392245292664,
          -0.6017414927482605,
          0.667496383190155,
          -0.5101326107978821,
          -0.18766245245933533,
          0.5536500811576843,
          -0.09872051328420639,
          0.0775417685508728,
          0.4544627368450165,
          0.023371122777462006,
          -0.8160514831542969,
          0.7463590502738953,
          -0.27814722061157227,
          -0.632832944393158,
          -0.8224268555641174,
          0.8224952816963196,
          -0.3174588084220886,
          0.8178995847702026,
          0.8204666376113892,
          0.7480865120887756,
          -0.03888389468193054,
          -0.16665974259376526,
          0.737888753414154,
          0.3420255184173584,
          0.014036397449672222,
          0.12150105088949203,
          0.22275997698307037,
          -0.11191913485527039,
          -0.7617989182472229,
          0.681554913520813,
          -0.07213415205478668,
          -0.4491160213947296,
          -0.7808200120925903,
          0.80014967918396,
          -0.4556181728839874,
          0.6853545308113098,
          0.6087636351585388,
          0.7982853651046753,
          -0.10191796720027924,
          -0.01224190928041935,
          0.5922631025314331,
          0.3038264811038971,
          -0.08260553330183029,
          -0.24488648772239685,
          0.9362865090370178,
          0.45449674129486084,
          -0.49789729714393616,
          0.5677168369293213,
          -0.0288876723498106,
          -0.7951255440711975,
          -0.5482204556465149,
          0.5094780921936035,
          -0.30677464604377747,
          0.5523501038551331,
          0.6394959092140198,
          0.6346719264984131,
          -0.42469966411590576,
          0.026609331369400024,
          0.6322324275970459,
          -0.02039632573723793,
          0.10846274346113205,
          -0.056689947843551636,
          0.35165372490882874,
          0.007517763879150152,
          -0.47913238406181335,
          0.507778525352478,
          -0.022155746817588806,
          -0.49216845631599426,
          -0.5146029591560364,
          0.5230758786201477,
          -0.2709091603755951,
          0.5089420676231384,
          0.4007345736026764,
          0.5434911847114563,
          0.021473951637744904,
          -0.07120826840400696,
          0.41208210587501526,
          0.28047436475753784,
          -0.03830653801560402,
          -0.18319377303123474,
          0.7844427824020386,
          0.4640609323978424,
          -0.8625392317771912,
          0.8039031028747559,
          -0.1537875235080719,
          -0.6863462328910828,
          -0.8178282380104065,
          0.6570737361907959,
          -0.6985422968864441,
          0.7996124029159546,
          0.7627390623092651,
          0.7592300176620483,
          -0.3126939535140991,
          0.10407234728336334,
          0.8547208309173584,
          0.399169921875,
          0.24299609661102295,
          -0.3457430303096771,
          0.4346538782119751,
          0.6683762669563293,
          -0.7043390870094299,
          0.9789136648178101,
          0.05241759121417999,
          -0.41069960594177246,
          -0.7961071133613586,
          0.6269704699516296,
          -0.7503232955932617,
          0.7753953337669373,
          0.40108782052993774,
          0.7213760614395142,
          -0.4101707935333252,
          0.5712341666221619,
          0.4658525288105011,
          0.3054967224597931,
          -0.25626230239868164,
          0.29673057794570923,
          -0.3514348566532135,
          -0.6046268939971924,
          0.40889397263526917,
          -0.5898573994636536,
          -0.41579166054725647,
          0.496110737323761,
          0.4548521339893341,
          -0.3929348289966583,
          0.6364598870277405,
          -0.34256017208099365,
          -0.15774714946746826,
          -0.7385715246200562,
          0.6316313147544861,
          -0.5052363872528076,
          -0.15567626059055328,
          0.3864251375198364,
          -0.02916218712925911,
          -0.4177776575088501,
          1.126948356628418,
          0.6333749890327454,
          -0.40476667881011963,
          0.6397112011909485,
          0.08128714561462402,
          -0.8063806891441345,
          -0.38474568724632263,
          0.29724347591400146,
          -0.615032434463501,
          0.5633155703544617,
          0.48798617720603943,
          0.5329702496528625,
          -0.4922310709953308,
          0.13593272864818573,
          0.5153778791427612,
          -0.29099369049072266,
          -0.025817561894655228,
          0.08241383731365204,
          0.09732025861740112,
          -0.12072451412677765,
          -0.5558063983917236,
          0.6081349849700928,
          -0.13375084102153778,
          -0.40337228775024414,
          -0.6115147471427917,
          0.5620428323745728,
          -0.07862001657485962,
          0.6087763905525208,
          0.46428436040878296,
          0.6594645380973816,
          -0.015287300571799278,
          -0.0596044659614563,
          0.3362336754798889,
          0.08622961491346359,
          -0.008600227534770966,
          0.19344116747379303,
          -0.2151484340429306,
          -0.7746869325637817,
          0.4273775815963745,
          -0.7312519550323486,
          -0.33843252062797546,
          0.6042505502700806,
          0.4156951308250427,
          -0.5498475432395935,
          0.7849832773208618,
          -0.328702449798584,
          -0.14772996306419373,
          -0.7038700580596924,
          0.7081266045570374,
          -0.4604973793029785,
          0.1335686296224594,
          0.6673280596733093,
          -0.13407231867313385,
          0.06317589432001114,
          0.5484992861747742,
          0.16047394275665283,
          -0.7144326567649841,
          0.6424247622489929,
          -0.1660165637731552,
          -0.6416271328926086,
          -0.7435861229896545,
          0.680816650390625,
          -0.31609153747558594,
          0.7349847555160522,
          0.6653786301612854,
          0.7667520046234131,
          -0.11051136255264282,
          -0.15377667546272278,
          0.6205706000328064,
          0.24859318137168884,
          -0.122682586312294,
          0.2845034897327423,
          -0.29652002453804016,
          -0.05443960800766945,
          -0.821991503238678,
          0.7243928909301758,
          -0.28510260581970215,
          -0.27692776918411255,
          -0.8377822637557983,
          0.7800608277320862,
          -0.2734947204589844,
          0.6914727091789246,
          0.5543020367622375,
          0.7173447608947754,
          -0.07450366765260696,
          -0.011630107648670673,
          0.35155847668647766,
          0.09953007847070694,
          0.73067307472229,
          -0.6080595254898071,
          0.20494790375232697,
          0.31742170453071594,
          -0.505681574344635,
          0.6193819642066956,
          0.8108750581741333,
          -0.291183739900589,
          -0.8107823729515076,
          0.7285951375961304,
          -0.351054847240448,
          0.4776079058647156,
          0.509126603603363,
          0.6102988123893738,
          -0.17269660532474518,
          0.7012671828269958,
          0.3298124670982361,
          0.32947245240211487
        ]
      },
      "inputHidden": {
        "rows": 20,
        "columns": 20,
        "weights": [
          0.1394985020160675,
          0.018897108733654022,
          0.160077303647995,
          -0.138614684343338,
          0.17027999460697174,
          0.3087497651576996,
          -0.25355419516563416,
          -0.004098026547580957,
          -0.14650946855545044,
          -0.14187084138393402,
          -0.14686401188373566,
          0.16610212624073029,
          0.057430192828178406,
          -0.1550140380859375,
          0.0791456326842308,
          -0.01651828922331333,
          -0.08805948495864868,
          0.06471575051546097,
          -0.14366264641284943,
          0.013555899262428284,
          -0.5099602341651917,
          -0.10763132572174072,
          0.17497949302196503,
          0.47241729497909546,
          -0.3156090974807739,
          -0.27596211433410645,
          0.522226870059967,
          -0.1521071493625641,
          0.2761971950531006,
          -0.0013572063762694597,
          0.33164674043655396,
          -0.13533706963062286,
          0.016370993107557297,
          0.5505853891372681,
          -0.04511048272252083,
          0.2157597690820694,
          -0.4534468650817871,
          0.02062663994729519,
          0.26328301429748535,
          -0.5827159881591797,
          -0.7986364960670471,
          -0.352586954832077,
          0.22727812826633453,
          0.7259578108787537,
          -0.054734282195568085,
          -0.46609148383140564,
          0.9096745848655701,
          -0.30714160203933716,
          0.5542310476303101,
          -0.3390556871891022,
          0.09580951184034348,
          -0.39420178532600403,
          -0.13804401457309723,
          0.8682807683944702,
          0.29463207721710205,
          0.20414306223392487,
          -0.7364025115966797,
          0.378334105014801,
          0.48716285824775696,
          -1.3619413375854492,
          0.10469048470258713,
          0.35383930802345276,
          0.557290256023407,
          -0.043115198612213135,
          0.3453526794910431,
          0.5945289134979248,
          -0.19506654143333435,
          0.32475876808166504,
          -0.5078175067901611,
          0.11693449318408966,
          -0.19949273765087128,
          0.5559396147727966,
          0.46802377700805664,
          -0.09961555898189545,
          -0.19937099516391754,
          -0.0961606428027153,
          -0.07946201413869858,
          -0.29521793127059937,
          -0.38761594891548157,
          -0.0021680211648344994,
          -0.774662435054779,
          -0.14712202548980713,
          0.2706233263015747,
          0.9268701672554016,
          0.006624591536819935,
          -0.09295093268156052,
          0.7336847186088562,
          -0.09055492281913757,
          0.12865939736366272,
          -0.056623246520757675,
          0.09714631736278534,
          -0.11593346297740936,
          -0.0353240929543972,
          0.6923924684524536,
          0.1447717845439911,
          0.015602399595081806,
          -0.6804119348526001,
          0.13440407812595367,
          0.05800490826368332,
          0.12533672153949738,
          -0.7263339161872864,
          -0.09605778008699417,
          0.14361728727817535,
          0.6287513971328735,
          -0.16435715556144714,
          -0.3441440463066101,
          0.6439498066902161,
          -0.15353484451770782,
          0.28184646368026733,
          -0.07696080207824707,
          0.1752900332212448,
          -0.06518833339214325,
          0.014361920766532421,
          0.7555909156799316,
          0.10366871953010559,
          0.05300409719347954,
          -0.6178349852561951,
          0.08095698803663254,
          0.25772640109062195,
          -0.297014057636261,
          -0.001410902477800846,
          0.0999167338013649,
          0.24854664504528046,
          -0.0032323915511369705,
          0.18849880993366241,
          0.28722915053367615,
          -0.18865902721881866,
          -0.053604524582624435,
          -0.16901689767837524,
          -0.19854088127613068,
          -0.2644115686416626,
          0.10940874367952347,
          0.06247799098491669,
          -0.15025784075260162,
          0.11898599565029144,
          0.10410711169242859,
          -0.14764855802059174,
          0.11899884790182114,
          -0.1383872628211975,
          0.050772808492183685,
          -0.5835402607917786,
          -0.15323235094547272,
          0.21482716500759125,
          0.4351979196071625,
          -0.3111109435558319,
          -0.4040789306163788,
          0.5660409331321716,
          -0.1591707468032837,
          0.3669416904449463,
          0.009671539068222046,
          0.31875932216644287,
          -0.1187824010848999,
          -0.0383283868432045,
          0.5718376040458679,
          0.08019042760133743,
          0.12907928228378296,
          -0.3875334858894348,
          0.027196144685149193,
          0.43111753463745117,
          -0.6281076669692993,
          -0.6399681568145752,
          0.0022768541239202023,
          0.22104407846927643,
          0.7217207551002502,
          -0.18182319402694702,
          -0.3743795156478882,
          0.6186469197273254,
          -0.01242625992745161,
          0.32440248131752014,
          0.041235633194446564,
          0.1280972808599472,
          0.07187960296869278,
          0.0539885014295578,
          0.7420192360877991,
          -0.11430975049734116,
          0.03732171282172203,
          -0.617813766002655,
          -0.05863666906952858,
          0.3757852017879486,
          -0.32723182439804077,
          -0.6757760047912598,
          -0.13705170154571533,
          0.09636936336755753,
          0.682201623916626,
          -0.18745972216129303,
          -0.17588113248348236,
          0.7089923024177551,
          -0.1142047792673111,
          0.2015189230442047,
          0.0453595407307148,
          0.17880947887897491,
          -0.1192416325211525,
          0.02968493103981018,
          0.5807746052742004,
          -0.02606586180627346,
          0.16315694153308868,
          -0.6058472394943237,
          0.011858017183840275,
          0.08320941030979156,
          -0.42607584595680237,
          -0.9114523530006409,
          -0.30403754115104675,
          0.19146239757537842,
          0.868167519569397,
          -0.15980863571166992,
          -0.09504314512014389,
          0.939192533493042,
          -0.21494705975055695,
          0.079447902739048,
          -0.18143540620803833,
          0.12220541387796402,
          -0.27863115072250366,
          -0.1420127898454666,
          0.9161336421966553,
          0.20923152565956116,
          -0.05463855713605881,
          -0.8145808577537537,
          0.1152578666806221,
          0.11903556436300278,
          0.2132246196269989,
          -0.5419854521751404,
          -0.10434781014919281,
          0.11593408137559891,
          0.34908536076545715,
          -0.21111245453357697,
          -0.2739325165748596,
          0.59036785364151,
          -0.1084972396492958,
          0.20944592356681824,
          -0.06545703113079071,
          0.2144797295331955,
          -0.15863867104053497,
          -0.16427870094776154,
          0.6696009039878845,
          0.092894546687603,
          0.1034088060259819,
          -0.49804529547691345,
          0.14348232746124268,
          0.13384845852851868,
          -0.1959259957075119,
          -0.3435198962688446,
          0.17468880116939545,
          0.39091262221336365,
          0.38317134976387024,
          -0.1381119042634964,
          0.1568291336297989,
          0.4549674391746521,
          0.17575526237487793,
          -0.13726665079593658,
          0.2663269340991974,
          0.0654936209321022,
          0.20769765973091125,
          0.15633761882781982,
          0.5325217247009277,
          -0.2922452390193939,
          0.0033648901153355837,
          -0.562912106513977,
          -0.21104049682617188,
          -0.2044459879398346,
          -0.19651202857494354,
          0.22984394431114197,
          -0.21494033932685852,
          -0.0389220304787159,
          -0.1439913958311081,
          0.12315350770950317,
          0.13628827035427094,
          -0.23005139827728271,
          -0.23480652272701263,
          -0.009122082963585854,
          -0.2739832401275635,
          -0.20071806013584137,
          -0.10834067314863205,
          -0.21814733743667603,
          -0.1710169017314911,
          0.3718494176864624,
          0.10717019438743591,
          0.061979133635759354,
          0.2945767939090729,
          -0.10109031945466995,
          0.09073843061923981,
          -0.7683908343315125,
          -0.1190374568104744,
          0.2788330316543579,
          0.7611945867538452,
          -0.23948942124843597,
          -0.1182238981127739,
          0.7542401552200317,
          -0.12194249033927917,
          0.17227856814861298,
          -0.03783935680985451,
          0.1366877406835556,
          -0.14093071222305298,
          -0.05676257237792015,
          0.7388916015625,
          -0.10063663870096207,
          0.07737941294908524,
          -0.6646715998649597,
          0.08654012531042099,
          0.04150770604610443,
          -0.5993465185165405,
          -0.9661836624145508,
          -0.07943864166736603,
          0.20000717043876648,
          0.8916955590248108,
          0.01782994344830513,
          -0.1564815491437912,
          0.9774212837219238,
          -0.1804407685995102,
          0.16651859879493713,
          -0.12440919131040573,
          -0.007525082211941481,
          -0.03522791713476181,
          -0.04870893061161041,
          1.0402263402938843,
          0.12009429931640625,
          -0.09871228039264679,
          -0.8523076176643372,
          0.06152408570051193,
          -0.012593312188982964,
          -0.32496020197868347,
          -0.001350356382317841,
          -0.2050902098417282,
          0.2640226483345032,
          0.0315217487514019,
          0.08404778689146042,
          -0.0524008572101593,
          0.05175479128956795,
          -0.227729931473732,
          0.040157023817300797,
          -0.3540695905685425,
          -0.020664988085627556,
          -0.04446608945727348,
          -0.043005019426345825,
          0.0672578364610672,
          0.46061939001083374,
          0.1773596853017807,
          -0.12179750204086304,
          0.2780399024486542,
          0.03517266735434532,
          -0.40574896335601807,
          -0.6957945227622986,
          -0.10028062015771866,
          0.11097074300050735,
          0.5639368295669556,
          -0.17403315007686615,
          -0.30419453978538513,
          0.6228713393211365,
          -0.1913529634475708,
          0.2469751387834549,
          -0.014668070711195469,
          0.25333648920059204,
          -0.11474508792161942,
          -0.11506597697734833,
          0.6386811137199402,
          0.0033507540356367826,
          0.09826716035604477,
          -0.5065484046936035,
          -0.008130262605845928,
          0.2622840702533722,
          -0.5585179924964905,
          -0.7258383631706238,
          0.04101957753300667,
          0.2839930057525635,
          0.6812568306922913,
          -0.15931597352027893,
          -0.4898602366447449,
          0.6539190411567688,
          -0.023927953094244003,
          0.4419085681438446,
          0.12474367022514343,
          -0.022639956325292587,
          0.10556801408529282,
          0.022711703553795815,
          0.6934500336647034,
          -0.13424549996852875,
          0.06045594438910484,
          -0.62723308801651,
          -0.034556444734334946,
          0.35803282260894775,
          -0.09230937063694,
          -0.035943884402513504,
          1.0312201976776123,
          0.8299977779388428,
          -0.04611559584736824,
          0.5122709274291992,
          0.747275710105896,
          0.0609024353325367,
          0.9907949566841125,
          -1.0041848421096802,
          0.9520111680030823,
          -0.4541173577308655,
          0.8712809681892395,
          0.71596360206604,
          -0.030364733189344406,
          -0.8842954635620117,
          -0.7779132723808289,
          0.0840655118227005,
          -0.8955448865890503,
          -0.707053005695343,
          0.510047197341919
        ]
      },
      "inputBias": {
        "rows": 20,
        "columns": 1,
        "weights": [
          -0.44139090180397034,
          -0.5026892423629761,
          0.3397592008113861,
          -0.621113121509552,
          -0.7539169788360596,
          -0.8585867285728455,
          -0.33583056926727295,
          -0.7798876762390137,
          -0.8755406141281128,
          -0.13050495088100433,
          -0.5917941927909851,
          -0.5161967277526855,
          -0.4427974224090576,
          -0.20678219199180603,
          0.00489658722653985,
          -0.7669452428817749,
          -0.4634818732738495,
          -0.6514092683792114,
          -0.9653871655464172,
          0.3454259932041168
        ]
      },
      "forgetMatrix": {
        "rows": 20,
        "columns": 18,
        "weights": [
          -0.2378874123096466,
          0.2570115625858307,
          -0.23730771243572235,
          -0.5063551068305969,
          0.416705846786499,
          -0.5667021870613098,
          -0.4883035123348236,
          0.4967583417892456,
          0.5393741130828857,
          -0.5204810500144958,
          0.6472055315971375,
          -0.4229235053062439,
          -0.300978422164917,
          -0.5648319125175476,
          0.5365052223205566,
          -0.4273707866668701,
          -0.09947644174098969,
          0.1589670479297638,
          0.1983051598072052,
          -0.22406163811683655,
          0.7669520974159241,
          0.4059525430202484,
          -0.6603188514709473,
          0.38311201333999634,
          0.14362411201000214,
          -0.7457516193389893,
          -0.647952675819397,
          0.6030830144882202,
          -0.4990263879299164,
          0.7036136984825134,
          0.7182026505470276,
          0.42390045523643494,
          -0.4637632668018341,
          0.20802675187587738,
          0.7472360134124756,
          0.5787374973297119,
          0.37324169278144836,
          -0.31731006503105164,
          0.602144718170166,
          0.18178747594356537,
          -0.6741245985031128,
          0.50263512134552,
          0.35166841745376587,
          -0.745075523853302,
          -0.5279431939125061,
          0.576826274394989,
          -0.3121158182621002,
          0.7046793103218079,
          0.657565176486969,
          0.6217615604400635,
          -0.5057297945022583,
          0.1536768525838852,
          0.505061149597168,
          0.18209269642829895,
          -0.34900587797164917,
          0.36375942826271057,
          -0.21559804677963257,
          -0.5728968977928162,
          0.5344452261924744,
          -0.7576231360435486,
          -0.6091864109039307,
          0.4192904233932495,
          0.49154147505760193,
          -0.5113884806632996,
          0.6023654341697693,
          -0.37181034684181213,
          -0.26533710956573486,
          -0.6692103743553162,
          0.5374329090118408,
          -0.5664528608322144,
          -0.12624366581439972,
          0.3060082495212555,
          0.20248013734817505,
          -0.21355465054512024,
          0.3082405924797058,
          0.3279188275337219,
          -0.4185255765914917,
          0.5043837428092957,
          0.2591194808483124,
          -0.455329954624176,
          -0.345518559217453,
          0.44710057973861694,
          -0.3689679503440857,
          0.32902881503105164,
          0.30746906995773315,
          0.5765566229820251,
          -0.3180435299873352,
          0.1731678545475006,
          0.24013757705688477,
          -0.02440592087805271,
          0.7098479866981506,
          -0.7224805951118469,
          0.22646693885326385,
          0.8502428531646729,
          -0.17236210405826569,
          0.14721529185771942,
          0.725658655166626,
          -0.1869269609451294,
          -0.11770497262477875,
          0.11934766173362732,
          -0.1725836545228958,
          0.29517117142677307,
          0.21046917140483856,
          0.27177873253822327,
          0.04713231697678566,
          0.7457418441772461,
          0.321032851934433,
          0.5338152050971985,
          -0.3042597770690918,
          0.24742461740970612,
          -0.1108880415558815,
          -0.4808894693851471,
          0.4537813365459442,
          -0.7020694613456726,
          -0.44437867403030396,
          0.41827213764190674,
          0.48077645897865295,
          -0.5736050009727478,
          0.5371168255805969,
          -0.37344658374786377,
          -0.2115667313337326,
          -0.5628636479377747,
          0.4682278633117676,
          -0.39236655831336975,
          -0.05962064489722252,
          0.1557205766439438,
          0.14743605256080627,
          -0.3087659776210785,
          0.540683925151825,
          0.38076648116111755,
          -0.6181255578994751,
          0.46444451808929443,
          0.21004462242126465,
          -0.6708972454071045,
          -0.6009751558303833,
          0.5043554306030273,
          -0.4428187310695648,
          0.574022650718689,
          0.6286072134971619,
          0.5118376016616821,
          -0.4844930171966553,
          0.27383819222450256,
          0.6073272824287415,
          0.19803479313850403,
          0.8241338729858398,
          -0.7673649787902832,
          0.18681755661964417,
          0.7922478318214417,
          -0.11247377842664719,
          0.1954547017812729,
          0.7654573321342468,
          -0.2275281846523285,
          -0.11222956329584122,
          0.23733925819396973,
          -0.1349760890007019,
          0.19727855920791626,
          0.2556319534778595,
          0.2417188137769699,
          -0.19161400198936462,
          0.7941889762878418,
          0.2480863630771637,
          0.5617808699607849,
          0.08994223922491074,
          -0.09673622995615005,
          0.46868112683296204,
          0.2546568512916565,
          -0.5446487665176392,
          0.511212944984436,
          0.026283303275704384,
          -0.4598614573478699,
          -0.45626670122146606,
          0.5115135908126831,
          -0.41897135972976685,
          0.6198469400405884,
          0.40084466338157654,
          0.5129970908164978,
          -0.24483288824558258,
          0.1738732010126114,
          0.40769776701927185,
          0.25044140219688416,
          0.14625313878059387,
          -0.14396090805530548,
          0.14525586366653442,
          0.22381021082401276,
          -0.3291952610015869,
          0.2518351972103119,
          0.19045883417129517,
          -0.222821444272995,
          -0.31299421191215515,
          0.2313857525587082,
          -0.11618532240390778,
          0.30882617831230164,
          0.19766157865524292,
          0.3532809913158417,
          -0.09978531301021576,
          -0.009828484617173672,
          0.10860737413167953,
          -0.06724098324775696,
          0.29640457034111023,
          -0.40467676520347595,
          0.8528058528900146,
          0.49152836203575134,
          -0.664810299873352,
          0.2758944630622864,
          0.3750878572463989,
          -0.6005893349647522,
          -0.5903320908546448,
          0.4566422700881958,
          -0.4382893145084381,
          0.6286276578903198,
          0.8315813541412354,
          0.48811283707618713,
          -0.4099276065826416,
          0.3108696937561035,
          0.9115793108940125,
          0.6471949219703674,
          -0.07519222050905228,
          0.043415751308202744,
          0.6265344023704529,
          0.05618845298886299,
          -0.7761250138282776,
          0.13611288368701935,
          0.053270258009433746,
          -0.7381927967071533,
          -0.7098881602287292,
          0.39377209544181824,
          -0.06407403200864792,
          0.6925823092460632,
          0.6004573106765747,
          0.21550586819648743,
          -0.09065067768096924,
          0.04411904886364937,
          0.6548362374305725,
          0.6786012053489685,
          -0.38099774718284607,
          0.311881959438324,
          -0.09469110518693924,
          -0.46357882022857666,
          0.44473981857299805,
          -0.582670271396637,
          -0.5693835616111755,
          0.39954835176467896,
          0.4607545733451843,
          -0.5960802435874939,
          0.5732404589653015,
          -0.3057253062725067,
          -0.26015982031822205,
          -0.5851691961288452,
          0.4928131401538849,
          -0.34703847765922546,
          -0.07058252394199371,
          0.12072210758924484,
          0.2477020025253296,
          -0.15313579142093658,
          0.5871766805648804,
          0.3163365423679352,
          -0.5772166848182678,
          0.4526238739490509,
          0.1808222085237503,
          -0.6504319906234741,
          -0.501546323299408,
          0.48401737213134766,
          -0.313033789396286,
          0.5918679237365723,
          0.6033790111541748,
          0.5028122663497925,
          -0.4349152445793152,
          0.3132598400115967,
          0.64560467004776,
          0.5465333461761475,
          0.21576759219169617,
          -0.20816391706466675,
          0.17195303738117218,
          0.18508587777614594,
          -0.16603983938694,
          0.28541141748428345,
          0.25303903222084045,
          -0.2342735081911087,
          -0.18727733194828033,
          0.16890481114387512,
          -0.18372900784015656,
          0.2811029255390167,
          0.23724590241909027,
          0.3628442585468292,
          -0.14608220756053925,
          0.14293701946735382,
          0.17316332459449768,
          -0.07783333212137222,
          -0.22209328413009644,
          0.1697796881198883,
          -0.10236228257417679,
          -0.8293250799179077,
          0.2336040437221527,
          -0.626201868057251,
          -0.6207401156425476,
          0.3243415355682373,
          0.4843434989452362,
          -0.592441737651825,
          0.7940754294395447,
          -0.12861455976963043,
          -0.122954361140728,
          -0.6294199228286743,
          0.5962761640548706,
          -0.41274285316467285,
          0.06532309204339981,
          0.2713715434074402,
          0.07621753960847855,
          -0.04694695025682449,
          0.6199085712432861,
          0.22463467717170715,
          -0.661462128162384,
          0.4274877607822418,
          -0.007580814883112907,
          -0.656313955783844,
          -0.6525366306304932,
          0.4668062627315521,
          -0.3295662999153137,
          0.650530219078064,
          0.6564162373542786,
          0.5084899067878723,
          -0.31175851821899414,
          0.07680770754814148,
          0.5741757750511169,
          0.46686384081840515,
          0.857420802116394,
          -0.7876772284507751,
          0.23588190972805023,
          0.8887805938720703,
          -0.20492810010910034,
          0.25063931941986084,
          0.8512123823165894,
          -0.1969333291053772,
          -0.1615506261587143,
          0.16047197580337524,
          -0.16995267570018768,
          0.25950682163238525,
          0.13319209218025208,
          0.30811068415641785,
          -0.11748964339494705,
          0.9772465229034424,
          0.015931127592921257,
          0.5713364481925964,
          -0.14913310110569,
          0.08219543099403381,
          0.6033773422241211,
          0.5447586178779602,
          -0.5529326796531677,
          0.7645641565322876,
          0.03950750082731247,
          -0.7221776843070984,
          -0.6731904745101929,
          0.7274932861328125,
          -0.7310052514076233,
          0.6943222880363464,
          0.697409451007843,
          0.675703227519989,
          -0.6130686402320862,
          -0.30864277482032776,
          0.722496747970581,
          -0.03784891963005066
        ]
      },
      "forgetHidden": {
        "rows": 20,
        "columns": 20,
        "weights": [
          -0.129777729511261,
          -0.020381789654493332,
          -0.1541896015405655,
          0.1389913558959961,
          -0.12203147262334824,
          -0.09150318801403046,
          0.12759742140769958,
          -0.1448361724615097,
          0.07280216366052628,
          -0.10973461717367172,
          0.1838516891002655,
          -0.12637899816036224,
          -0.20024500787258148,
          0.06560350954532623,
          0.18798266351222992,
          0.2002309113740921,
          -0.10926749557256699,
          0.18420088291168213,
          0.27242806553840637,
          -0.526486337184906,
          -0.3405277729034424,
          -0.36621594429016113,
          -0.1943763792514801,
          0.35632461309432983,
          -0.31715384125709534,
          -0.5137593746185303,
          0.40835297107696533,
          -0.35390985012054443,
          0.5347505807876587,
          -0.34638354182243347,
          0.3864852488040924,
          -0.3892795741558075,
          -0.24075861275196075,
          0.3667025566101074,
          0.34370920062065125,
          0.2611446976661682,
          -0.2650395929813385,
          0.33441829681396484,
          0.5914515852928162,
          -0.13766925036907196,
          -0.22906140983104706,
          -0.10817036032676697,
          -0.533315122127533,
          0.2585686147212982,
          -0.5298065543174744,
          -0.6267703175544739,
          0.27201348543167114,
          -0.4465011954307556,
          0.5737259984016418,
          -0.44770747423171997,
          0.33471179008483887,
          -0.016110386699438095,
          0.057585954666137695,
          0.18396684527397156,
          0.4050094783306122,
          0.24899567663669586,
          -0.2233324646949768,
          0.37194573879241943,
          0.49278077483177185,
          -0.5472210049629211,
          -0.16299664974212646,
          -0.05897766351699829,
          -0.16846218705177307,
          0.15826404094696045,
          -0.015112495049834251,
          -0.04502710700035095,
          0.005364680662751198,
          0.047158095985651016,
          -0.025201940909028053,
          -0.08584194630384445,
          0.10832037031650543,
          0.006440935656428337,
          -0.030713526532053947,
          0.1337055265903473,
          0.12535156309604645,
          0.11771316081285477,
          -0.18486930429935455,
          0.014656945131719112,
          0.08786620199680328,
          -0.5247824192047119,
          -0.2856205999851227,
          -0.3140871524810791,
          -0.12412228435277939,
          0.32821863889694214,
          -0.05812713876366615,
          -0.14159812033176422,
          0.408870130777359,
          -0.3310881555080414,
          0.08618979901075363,
          -0.2346440851688385,
          0.15762946009635925,
          -0.23942159116268158,
          -0.13066335022449493,
          0.262140691280365,
          0.17410209774971008,
          0.04942835494875908,
          -0.2464337795972824,
          0.16358447074890137,
          0.12910129129886627,
          0.10886060446500778,
          -0.28477028012275696,
          -0.5278889536857605,
          -0.33329614996910095,
          0.3439287841320038,
          0.023712066933512688,
          -0.09921065717935562,
          0.2783363461494446,
          -0.4415348470211029,
          -0.06684572249650955,
          -0.5018888711929321,
          -0.05049202963709831,
          -0.343111515045166,
          -0.31942328810691833,
          0.3840126097202301,
          0.35651370882987976,
          0.04307553544640541,
          -0.34590473771095276,
          0.3983613848686218,
          -0.05788348615169525,
          0.14383544027805328,
          -0.0598563514649868,
          -0.1093219518661499,
          -0.24431858956813812,
          0.22808626294136047,
          -0.24145261943340302,
          -0.07493464648723602,
          0.13870012760162354,
          -0.1623091846704483,
          0.13622596859931946,
          -0.1172846183180809,
          0.11349833756685257,
          -0.17522405087947845,
          -0.21818843483924866,
          0.09008841961622238,
          0.1790783554315567,
          0.2936766743659973,
          -0.2272212952375412,
          0.114983469247818,
          0.13595634698867798,
          -0.42741960287094116,
          -0.42766597867012024,
          -0.3320465087890625,
          -0.22727200388908386,
          0.40888145565986633,
          -0.2591325640678406,
          -0.35799849033355713,
          0.4396534860134125,
          -0.34998273849487305,
          0.276065856218338,
          -0.2681341767311096,
          0.2996726334095001,
          -0.18021737039089203,
          -0.20823904871940613,
          0.2996028959751129,
          0.36796674132347107,
          0.3219762444496155,
          -0.24196286499500275,
          0.26850277185440063,
          0.39348071813583374,
          -0.2787569761276245,
          -0.39949530363082886,
          -0.4539591372013092,
          -0.20864814519882202,
          0.2952880561351776,
          -0.05007500201463699,
          0.0042122732847929,
          0.45538151264190674,
          -0.3353259265422821,
          0.02183529920876026,
          -0.3798879384994507,
          0.015384780243039131,
          -0.3395492434501648,
          -0.28093665838241577,
          0.42250004410743713,
          0.2883569002151489,
          0.0931529849767685,
          -0.33384862542152405,
          0.39406314492225647,
          0.007271802984178066,
          0.2223522961139679,
          -0.4050271809101105,
          -0.23031285405158997,
          -0.01688268780708313,
          0.3660096526145935,
          -0.18707774579524994,
          -0.3515774607658386,
          0.45395585894584656,
          -0.354469895362854,
          0.2566041052341461,
          -0.3175433576107025,
          0.2964773178100586,
          -0.1400476098060608,
          -0.19429956376552582,
          0.3845377266407013,
          0.17223559319972992,
          0.1224762499332428,
          -0.24216806888580322,
          0.26157787442207336,
          0.37476107478141785,
          -0.13474252820014954,
          -0.35101956129074097,
          -0.4057086110115051,
          -0.42958298325538635,
          0.30377694964408875,
          0.03154907748103142,
          0.016014764085412025,
          0.2865477204322815,
          -0.4542408883571625,
          0.11807277053594589,
          -0.38382187485694885,
          -0.03389701619744301,
          -0.3974769115447998,
          -0.3631938099861145,
          0.2705986797809601,
          0.407612144947052,
          -0.01568033918738365,
          -0.2812116742134094,
          0.42702481150627136,
          0.00002053404568869155,
          0.2629387676715851,
          -0.28801822662353516,
          -0.38045212626457214,
          -0.2935839295387268,
          0.4049991965293884,
          -0.29702872037887573,
          -0.4044800400733948,
          0.41128700971603394,
          -0.3875819146633148,
          0.44773954153060913,
          -0.40804046392440796,
          0.2743622660636902,
          -0.41727155447006226,
          -0.35014790296554565,
          0.3177375793457031,
          0.40993544459342957,
          0.37693145871162415,
          -0.30230650305747986,
          0.37521740794181824,
          0.5476338863372803,
          -0.1298314779996872,
          -0.3399741053581238,
          -0.4167020320892334,
          -0.15527962148189545,
          0.2538207769393921,
          -0.19154007732868195,
          -0.7050116062164307,
          0.4775788187980652,
          -0.3852890133857727,
          0.5638675093650818,
          -0.3457750678062439,
          0.3232126533985138,
          -0.33401811122894287,
          -0.3585072457790375,
          0.4338093400001526,
          0.3379887342453003,
          0.2665053904056549,
          -0.30350038409233093,
          0.2638135552406311,
          0.6497868299484253,
          -0.002974494593217969,
          -0.16594728827476501,
          -0.21480613946914673,
          -0.22963440418243408,
          0.17148415744304657,
          -0.2529928982257843,
          -0.18433818221092224,
          0.054024651646614075,
          -0.10661328583955765,
          0.21269404888153076,
          -0.2690514326095581,
          0.2504711449146271,
          -0.15348638594150543,
          -0.15805673599243164,
          0.09746143966913223,
          0.2113933116197586,
          0.24016563594341278,
          -0.19415463507175446,
          0.2784620523452759,
          0.2647452652454376,
          -0.5318878889083862,
          -0.3247547745704651,
          -0.26914966106414795,
          -0.11735692620277405,
          0.26387110352516174,
          -0.30416029691696167,
          -0.6577665209770203,
          0.35895150899887085,
          -0.29455772042274475,
          0.49011456966400146,
          -0.28237491846084595,
          0.39069464802742004,
          -0.19465512037277222,
          -0.11312364786863327,
          0.38964250683784485,
          0.300507515668869,
          0.2543858289718628,
          -0.3036409914493561,
          0.2844187915325165,
          0.5732569694519043,
          -0.2408941388130188,
          -0.19319124519824982,
          -0.3451573848724365,
          -0.2700304388999939,
          0.20968645811080933,
          -0.1080225333571434,
          -0.09635240584611893,
          0.36462727189064026,
          -0.446740061044693,
          0.11108043789863586,
          -0.3159361481666565,
          0.10377298295497894,
          -0.2772885859012604,
          -0.3077339828014374,
          0.21832700073719025,
          0.33091235160827637,
          -0.036594901233911514,
          -0.1984134316444397,
          0.28607359528541565,
          0.031367041170597076,
          0.015351456589996815,
          -0.08375249803066254,
          -0.23052005469799042,
          -0.12518663704395294,
          0.16554905474185944,
          -0.23610617220401764,
          -0.12225356698036194,
          0.152150496840477,
          -0.2215568572282791,
          0.2039988934993744,
          -0.2605380415916443,
          0.15350735187530518,
          -0.10421612858772278,
          -0.1979418247938156,
          0.03132089227437973,
          0.21506895124912262,
          0.1475069522857666,
          -0.242919921875,
          0.12452871352434158,
          0.18118855357170105,
          -0.4709414541721344,
          -0.3613370358943939,
          -0.34437891840934753,
          -0.2476559430360794,
          0.3609418570995331,
          -0.3043983280658722,
          -0.5108272433280945,
          0.44875568151474,
          -0.4169067144393921,
          0.4582105278968811,
          -0.3688414394855499,
          0.3883683681488037,
          -0.43888354301452637,
          -0.2803969383239746,
          0.3889552652835846,
          0.3708469569683075,
          0.3339545726776123,
          -0.2732498049736023,
          0.39006081223487854,
          0.45836636424064636,
          -0.15884090960025787,
          -0.3011171817779541,
          -0.35438480973243713,
          -0.21018709242343903,
          0.24923746287822723,
          0.16282303631305695,
          0.16389811038970947,
          0.3172249495983124,
          -0.3612837791442871,
          -0.07579519599676132,
          -0.3532992899417877,
          -0.11638382822275162,
          -0.11684636026620865,
          -0.037520863115787506,
          0.3617361783981323,
          0.357892245054245,
          -0.1555454432964325,
          -0.15447629988193512,
          0.33366626501083374,
          -0.21269425749778748,
          0.07570970058441162,
          0.05094154551625252,
          -0.10953494161367416,
          -0.07227485626935959,
          -0.1809655874967575,
          0.013101644814014435,
          -0.4161084294319153,
          -0.11967238038778305,
          -0.16118770837783813,
          0.2812279760837555,
          -0.1723141223192215,
          0.14920416474342346,
          -0.09839964658021927,
          -0.10350412130355835,
          0.03141871467232704,
          0.08547749370336533,
          0.19372643530368805,
          0.07597044110298157,
          0.13699305057525635,
          0.3103397488594055,
          0.38410821557044983
        ]
      },
      "forgetBias": {
        "rows": 20,
        "columns": 1,
        "weights": [
          0,
          0,
          0,
          0,
          0,
          0,
          0,
          0,
          0,
          0,
          0,
          0,
          0,
          0,
          0,
          0,
          0,
          0,
          0,
          0
        ]
      },
      "outputMatrix": {
        "rows": 20,
        "columns": 18,
        "weights": [
          -0.35809099674224854,
          0.48381972312927246,
          -0.27893301844596863,
          -0.7899957895278931,
          0.31511011719703674,
          -0.7538815140724182,
          -0.4998611807823181,
          0.5824713110923767,
          0.4806098937988281,
          -0.44587090611457825,
          0.8361014723777771,
          -0.37388354539871216,
          -0.2230953425168991,
          -0.7568376064300537,
          0.6723935008049011,
          -0.6464388966560364,
          0.031807951629161835,
          0.7516175508499146,
          -0.03468973562121391,
          -0.06747469305992126,
          1.0438735485076904,
          0.42228859663009644,
          -0.887995183467865,
          0.8070214986801147,
          -0.09714343398809433,
          -0.9090103507041931,
          -0.7814982533454895,
          0.810909628868103,
          -0.5611986517906189,
          0.9370601177215576,
          0.9003931879997253,
          0.8796022534370422,
          -0.36299899220466614,
          0.09810907393693924,
          0.9050974249839783,
          0.4048946797847748,
          -0.16523560881614685,
          -0.3014509081840515,
          1.0129351615905762,
          1.154877781867981,
          -0.48868727684020996,
          0.5866384506225586,
          -0.045938875526189804,
          -0.9559953808784485,
          -0.5167893171310425,
          0.30014145374298096,
          -1.0367541313171387,
          0.6473422646522522,
          0.6096051931381226,
          0.6005564332008362,
          -1.0375922918319702,
          0.3497004806995392,
          0.7161171436309814,
          -0.6466715335845947,
          -0.03415009379386902,
          0.1700362116098404,
          -0.6672683358192444,
          -0.6202059984207153,
          0.5449780225753784,
          -0.8218687176704407,
          -0.23597308993339539,
          0.6337420344352722,
          0.47849562764167786,
          -0.48290136456489563,
          0.8359686732292175,
          -0.4124378263950348,
          -0.3272002935409546,
          -0.7398349642753601,
          0.5567857623100281,
          -0.3657052516937256,
          -0.25133275985717773,
          0.6984267830848694,
          -0.11289230734109879,
          0.10691459476947784,
          -0.49991559982299805,
          -1.0111678838729858,
          -0.31515198945999146,
          0.02451891452074051,
          -0.28446120023727417,
          -0.07578811794519424,
          -0.19648131728172302,
          0.14743787050247192,
          0.42016223073005676,
          0.30317434668540955,
          0.27644526958465576,
          0.28540879487991333,
          0.9239670634269714,
          -0.8248873353004456,
          0.31887179613113403,
          0.40290796756744385,
          0.1397780030965805,
          -0.12099949270486832,
          0.5466358065605164,
          0.2500897943973541,
          -0.9324780702590942,
          0.8980715274810791,
          -0.008685991168022156,
          -0.8635382056236267,
          -0.9172656536102295,
          0.9444605112075806,
          -0.7578591704368591,
          0.9553873538970947,
          0.8342945575714111,
          0.9499411582946777,
          -0.4650225341320038,
          0.01933201774954796,
          0.7360144853591919,
          -0.1316078007221222,
          -0.29164987802505493,
          0.46187442541122437,
          -0.3062104284763336,
          -0.7188990116119385,
          0.3497452437877655,
          -0.8348568677902222,
          -0.5985361933708191,
          0.5812584757804871,
          0.47708603739738464,
          -0.40903353691101074,
          0.7265695333480835,
          -0.2884921133518219,
          -0.17108577489852905,
          -0.7562560439109802,
          0.5910137295722961,
          -0.5172421336174011,
          0.014684303663671017,
          0.579278826713562,
          0.02250591292977333,
          -0.12139298766851425,
          0.5722126960754395,
          0.20913159847259521,
          -0.8131197690963745,
          0.8459402322769165,
          0.0020516596268862486,
          -0.7132923603057861,
          -0.7896393537521362,
          0.7348177433013916,
          -0.5116636753082275,
          0.7714197635650635,
          0.8204439878463745,
          0.7070710062980652,
          -0.14990150928497314,
          0.031549397855997086,
          0.8194922208786011,
          0.475350558757782,
          0.2739618420600891,
          -0.2588012218475342,
          0.4884054660797119,
          0.32625073194503784,
          -0.980178952217102,
          0.856396496295929,
          0.1536853313446045,
          -0.6951999664306641,
          -0.8596104383468628,
          0.9790875911712646,
          -0.6307064294815063,
          0.8866450190544128,
          0.8439996242523193,
          0.920661985874176,
          -0.39278900623321533,
          0.15975520014762878,
          0.7340508699417114,
          0.11522703617811203,
          -0.05545131117105484,
          -0.23749706149101257,
          1.0849214792251587,
          0.5017383098602295,
          -0.6265098452568054,
          0.6209831237792969,
          0.08840765804052353,
          -0.6957759857177734,
          -0.6201618313789368,
          0.4793715178966522,
          -0.45261916518211365,
          0.5764883160591125,
          0.6274123191833496,
          0.6108864545822144,
          -0.4260881245136261,
          0.17161640524864197,
          0.6362293362617493,
          0.10612817108631134,
          -0.14236602187156677,
          -0.017566505819559097,
          -0.4062793552875519,
          -1.3288495540618896,
          -0.23026715219020844,
          -0.03635101765394211,
          -0.22269444167613983,
          -0.05630643665790558,
          -0.28200334310531616,
          0.1605117917060852,
          0.4569642245769501,
          0.45184093713760376,
          0.2623191773891449,
          0.22773465514183044,
          1.027275562286377,
          -0.948261559009552,
          0.45834729075431824,
          0.5014040470123291,
          0.19519631564617157,
          -0.17988798022270203,
          0.9588806629180908,
          0.4518522322177887,
          -0.9571120142936707,
          0.9665903449058533,
          -0.036675434559583664,
          -0.932966947555542,
          -0.9381248354911804,
          0.842753529548645,
          -0.7929481267929077,
          0.9787157773971558,
          0.8586714863777161,
          0.8541054725646973,
          -0.3803066611289978,
          0.2938063442707062,
          1.0244415998458862,
          0.7027984261512756,
          -0.02591957151889801,
          -0.0035731594543904066,
          0.8378344178199768,
          0.5935107469558716,
          -0.9421042799949646,
          0.8175989985466003,
          -0.2880348265171051,
          -0.6732332706451416,
          -0.8292078375816345,
          0.7760335803031921,
          -0.6701654195785522,
          1.1003365516662598,
          0.8026777505874634,
          0.8160539269447327,
          -0.4503976106643677,
          0.19877228140830994,
          1.021225929260254,
          0.8281304240226746,
          -0.19989874958992004,
          0.28259193897247314,
          -0.37927743792533875,
          -0.5947550535202026,
          0.37581124901771545,
          -0.6519732475280762,
          -0.4807148277759552,
          0.5827723741531372,
          0.547166109085083,
          -0.46402841806411743,
          0.693916916847229,
          -0.3206366300582886,
          -0.15134036540985107,
          -0.6809466481208801,
          0.5703452825546265,
          -0.531349241733551,
          -0.01669270172715187,
          0.4837222099304199,
          -0.10007810592651367,
          -0.3335759937763214,
          1.2339649200439453,
          0.7010799050331116,
          -0.5655651092529297,
          0.6576333045959473,
          0.0027588848024606705,
          -0.8637579083442688,
          -0.5742154717445374,
          0.39759165048599243,
          -0.6333484649658203,
          0.5431328415870667,
          0.5453174710273743,
          0.5234102010726929,
          -0.5557157397270203,
          0.14623935520648956,
          0.7865658402442932,
          -0.15483181178569794,
          -0.525317907333374,
          0.4621446132659912,
          -0.5414855480194092,
          -1.136925220489502,
          -0.3582899272441864,
          0.28186818957328796,
          -0.69166100025177,
          -0.0870891660451889,
          -0.49500158429145813,
          0.3581749200820923,
          0.43216583132743835,
          0.5599410533905029,
          0.4521248936653137,
          0.3301684856414795,
          1.034706950187683,
          -0.7860704064369202,
          0.30969855189323425,
          -0.16022707521915436,
          -0.23538927733898163,
          0.13755735754966736,
          -0.056568268686532974,
          -1.1183264255523682,
          0.280694842338562,
          -0.8579089641571045,
          -0.7293410897254944,
          0.5192599892616272,
          0.4039708077907562,
          -0.5880118012428284,
          1.0146030187606812,
          -0.10959956049919128,
          -0.05301862582564354,
          -0.8626043200492859,
          0.9319599866867065,
          -0.6501219272613525,
          0.3226337134838104,
          0.7766819000244141,
          0.00813768245279789,
          -0.0056480602361261845,
          0.7084062099456787,
          0.1650581657886505,
          -0.777022659778595,
          0.8077033162117004,
          -0.15862791240215302,
          -0.7026899456977844,
          -0.6842643618583679,
          0.6563066244125366,
          -0.3256339728832245,
          0.8740231394767761,
          0.6984503269195557,
          0.7985513210296631,
          -0.18258319795131683,
          -0.00492478022351861,
          0.7891217470169067,
          0.4949222803115845,
          0.20424827933311462,
          -0.09008342772722244,
          0.14545315504074097,
          0.29492148756980896,
          -0.8663870692253113,
          0.9548176527023315,
          0.11674273759126663,
          -0.6075819134712219,
          -0.9679663181304932,
          0.8971564769744873,
          -0.5870752930641174,
          0.919296145439148,
          0.7192066311836243,
          1.0058016777038574,
          -0.37637245655059814,
          0.2493564337491989,
          0.5227770209312439,
          0.12520992755889893,
          1.3154492378234863,
          -1.1308903694152832,
          0.14091885089874268,
          0.4630301892757416,
          -0.12888072431087494,
          0.1623525768518448,
          1.139274001121521,
          -0.06174087151885033,
          -0.24167945981025696,
          0.26067405939102173,
          -0.09225810319185257,
          0.16331209242343903,
          0.12300679087638855,
          0.2052791565656662,
          0.09441502392292023,
          0.8534661531448364,
          0.21456417441368103,
          1.138759732246399
        ]
      },
      "outputHidden": {
        "rows": 20,
        "columns": 20,
        "weights": [
          0.0157812237739563,
          -0.21077008545398712,
          0.0023342715576291084,
          -0.10505017638206482,
          0.14568129181861877,
          -0.059635475277900696,
          -0.13450391590595245,
          -0.17160677909851074,
          0.18989400565624237,
          -0.19415736198425293,
          -0.08339373767375946,
          -0.13385018706321716,
          -0.15062668919563293,
          -0.03492823615670204,
          0.2111615240573883,
          0.01760546676814556,
          0.07351336628198624,
          0.32484307885169983,
          0.10679421573877335,
          -0.20238839089870453,
          -0.526826024055481,
          -0.1864703744649887,
          0.057484425604343414,
          0.47985538840293884,
          -0.44079262018203735,
          -0.44919446110725403,
          0.4881027042865753,
          -0.2082732617855072,
          0.38093456625938416,
          -0.1103946715593338,
          0.41372421383857727,
          -0.20962950587272644,
          -0.11771102994680405,
          0.580585241317749,
          0.12174894660711288,
          0.4602137506008148,
          -0.39973461627960205,
          0.07042404264211655,
          0.44231536984443665,
          -0.5676202774047852,
          -0.7039353847503662,
          -0.13325421512126923,
          0.3212023675441742,
          0.5884154438972473,
          -0.34376299381256104,
          -0.4554547667503357,
          0.8564545512199402,
          -0.1314430981874466,
          0.44534987211227417,
          -0.1519438475370407,
          0.21643510460853577,
          -0.1272522211074829,
          -0.046234697103500366,
          0.851746141910553,
          0.1097252294421196,
          0.026596689596772194,
          -0.6277256011962891,
          0.08145645260810852,
          0.3668862581253052,
          -0.7308021187782288,
          0.0002549027558416128,
          0.3703172206878662,
          0.5299108624458313,
          -0.0868888795375824,
          0.24397438764572144,
          0.37470099329948425,
          -0.05095228552818298,
          0.30842992663383484,
          -0.368204265832901,
          0.20630337297916412,
          -0.20471587777137756,
          0.44587278366088867,
          0.4575345814228058,
          -0.06198865920305252,
          -0.26701483130455017,
          -0.1807442307472229,
          0.05860224366188049,
          -0.2127467840909958,
          -0.233661949634552,
          -0.34037455916404724,
          -0.836941659450531,
          -0.8193726539611816,
          -0.5434096455574036,
          0.8500920534133911,
          0.5183735489845276,
          0.623044490814209,
          0.8830687403678894,
          -0.7349690794944763,
          -0.554795503616333,
          -0.8139145970344543,
          -0.6303669214248657,
          -0.7574893236160278,
          -0.794434666633606,
          0.8844833970069885,
          0.881138801574707,
          -0.30878347158432007,
          -0.8117348551750183,
          0.7827184200286865,
          -0.7678546905517578,
          1.0611366033554077,
          -0.6898541450500488,
          0.03827514871954918,
          0.1629750281572342,
          0.7032226920127869,
          -0.2582647502422333,
          -0.3979015648365021,
          0.7086662650108337,
          0.06627088785171509,
          0.40070146322250366,
          0.1201172024011612,
          0.22875583171844482,
          0.07239127159118652,
          0.10330864042043686,
          0.7274930477142334,
          -0.006173853296786547,
          0.247602179646492,
          -0.5989932417869568,
          -0.04700542986392975,
          0.2881262004375458,
          -0.22255168855190277,
          0.04387534037232399,
          -0.1735362559556961,
          -0.10223249346017838,
          -0.014919222332537174,
          0.12117417901754379,
          -0.05783337354660034,
          -0.07036933302879333,
          -0.19122296571731567,
          0.12339947372674942,
          -0.2253388911485672,
          -0.08620894700288773,
          -0.16499122977256775,
          -0.11188723146915436,
          -0.08254197239875793,
          0.3718026578426361,
          0.04430763050913811,
          0.07820058614015579,
          0.31718945503234863,
          0.057029157876968384,
          -0.2717711627483368,
          -0.5691286325454712,
          -0.16334155201911926,
          0.2039978951215744,
          0.44806337356567383,
          -0.2571732699871063,
          -0.40214940905570984,
          0.5419964790344238,
          -0.08373673260211945,
          0.3545732796192169,
          -0.11177962273359299,
          0.3260189890861511,
          -0.09954972565174103,
          -0.09210654348134995,
          0.613283634185791,
          0.02082888036966324,
          0.27500084042549133,
          -0.4580705761909485,
          0.009853637777268887,
          0.46940308809280396,
          -0.5846588611602783,
          -0.7270463705062866,
          0.14927136898040771,
          0.3175663650035858,
          0.641076385974884,
          -0.2521354854106903,
          -0.5058054327964783,
          0.7132231593132019,
          0.07387854903936386,
          0.33637601137161255,
          0.22672595083713531,
          0.2357398420572281,
          0.12912072241306305,
          0.15945540368556976,
          0.700920820236206,
          -0.27250775694847107,
          0.10736282169818878,
          -0.516772985458374,
          -0.10364833474159241,
          0.38663870096206665,
          -0.2846209406852722,
          -0.592807412147522,
          -0.03046908788383007,
          0.1003919243812561,
          0.6568399667739868,
          -0.28562870621681213,
          -0.40470799803733826,
          0.6779578328132629,
          -0.09479738026857376,
          0.387002170085907,
          0.04551347717642784,
          0.2908792495727539,
          0.019675785675644875,
          0.0689249262213707,
          0.6198051571846008,
          -0.0008954660734161735,
          0.20338818430900574,
          -0.5920402407646179,
          0.10429291427135468,
          0.34539762139320374,
          -0.49625030159950256,
          -1.0008502006530762,
          -0.6855178475379944,
          -0.6188393235206604,
          1.0545554161071777,
          0.3226853907108307,
          0.31350061297416687,
          0.9832413196563721,
          -0.7329735159873962,
          -0.43145355582237244,
          -0.6311116218566895,
          -0.3832649290561676,
          -0.7626873850822449,
          -0.7133293151855469,
          1.099326729774475,
          0.7600082159042358,
          -0.1569516509771347,
          -0.824865996837616,
          0.6443275213241577,
          -0.5795813202857971,
          0.8017992973327637,
          -0.41225090622901917,
          -0.026908112689852715,
          0.22127066552639008,
          0.4075261652469635,
          -0.3159119486808777,
          -0.5273026823997498,
          0.5113316774368286,
          -0.05783054232597351,
          0.42514944076538086,
          -0.03957910090684891,
          0.2676882743835449,
          0.05182813107967377,
          -0.025999756529927254,
          0.6186388731002808,
          0.008498288691043854,
          0.33649325370788574,
          -0.5432175993919373,
          0.06722185760736465,
          0.47836577892303467,
          -0.507500171661377,
          -0.5937369465827942,
          -0.2528931200504303,
          -0.07240626960992813,
          0.5370504856109619,
          -0.2801739275455475,
          -0.7271842360496521,
          0.624844491481781,
          -0.28285038471221924,
          0.5553602576255798,
          -0.13443885743618011,
          0.22155463695526123,
          -0.18642668426036835,
          -0.2644404172897339,
          0.6763983368873596,
          0.12573443353176117,
          0.328488826751709,
          -0.7628050446510315,
          0.1512318253517151,
          0.6404629349708557,
          0.0033977204002439976,
          0.10650337487459183,
          -0.20561236143112183,
          -0.07469765841960907,
          -0.09062778949737549,
          0.13536497950553894,
          0.1664511263370514,
          -0.06316202878952026,
          -0.1960306018590927,
          -0.025106441229581833,
          -0.2680095434188843,
          -0.11168695986270905,
          -0.12694858014583588,
          -0.06163999065756798,
          -0.035719700157642365,
          0.38005751371383667,
          0.16896952688694,
          0.05466103181242943,
          0.2051994651556015,
          -0.07307273149490356,
          -0.2575460970401764,
          -0.7449138760566711,
          -0.08237211406230927,
          0.07102590799331665,
          0.8268731832504272,
          -0.30816182494163513,
          -0.4777066111564636,
          0.8952045440673828,
          -0.21592487394809723,
          0.5193036198616028,
          -0.14392982423305511,
          0.3374740183353424,
          -0.06764013320207596,
          -0.1038111224770546,
          0.8839825391769409,
          0.14744813740253448,
          0.3074495792388916,
          -0.6766204237937927,
          0.18045949935913086,
          0.4685382843017578,
          -0.5814045071601868,
          -1.1522613763809204,
          -0.42398813366889954,
          -0.054566193372011185,
          1.046570062637329,
          0.15737131237983704,
          0.010637140832841396,
          1.1279367208480835,
          -0.3805668354034424,
          -0.01615293323993683,
          -0.31510719656944275,
          -0.14849378168582916,
          -0.3033751845359802,
          -0.3558962345123291,
          1.253122329711914,
          0.3674824833869934,
          -0.2430609166622162,
          -0.8694365620613098,
          0.248320072889328,
          -0.08980375528335571,
          -0.08320211619138718,
          -0.05006663501262665,
          -0.17958544194698334,
          -0.2227005660533905,
          -0.04043322056531906,
          -0.08277763426303864,
          0.03857510909438133,
          0.058707185089588165,
          -0.2417883574962616,
          0.15101298689842224,
          -0.3959927558898926,
          0.019766230136156082,
          -0.1467343270778656,
          -0.2090165764093399,
          -0.01837156154215336,
          0.34814387559890747,
          0.07745774835348129,
          0.024969041347503662,
          0.2046431005001068,
          0.030221564695239067,
          -0.5072068572044373,
          -0.626746654510498,
          -0.1446153074502945,
          0.01295690331608057,
          0.6445410251617432,
          -0.4048864245414734,
          -0.5070635676383972,
          0.5872243642807007,
          -0.14928272366523743,
          0.4344235062599182,
          -0.1570768505334854,
          0.435983270406723,
          -0.09535686671733856,
          -0.052471477538347244,
          0.625697672367096,
          0.10840270668268204,
          0.34581559896469116,
          -0.4393042325973511,
          0.16630496084690094,
          0.4156706631183624,
          -0.4448161721229553,
          -0.790042519569397,
          0.22843381762504578,
          0.4555390179157257,
          0.8343927264213562,
          -0.09799417108297348,
          -0.31733834743499756,
          0.7270587682723999,
          0.1484830528497696,
          0.44257256388664246,
          0.3046731650829315,
          0.22673536837100983,
          0.22877518832683563,
          0.20766323804855347,
          0.630031943321228,
          -0.2184273898601532,
          0.03939664736390114,
          -0.7096566557884216,
          -0.2680163085460663,
          0.10271507501602173,
          -0.15738926827907562,
          0.07263803482055664,
          0.244253009557724,
          0.5530214905738831,
          -0.05423654988408089,
          0.6350591778755188,
          0.4246636927127838,
          -0.07920616120100021,
          0.23979249596595764,
          -0.46227872371673584,
          0.27060550451278687,
          -0.3907821476459503,
          0.27208730578422546,
          0.387450248003006,
          -0.03426744416356087,
          -0.22150921821594238,
          -0.3183562457561493,
          0.09316965192556381,
          -0.1861228495836258,
          -0.699120819568634,
          0.8851262927055359
        ]
      },
      "outputBias": {
        "rows": 20,
        "columns": 1,
        "weights": [
          -0.4954444468021393,
          -0.5094228982925415,
          0.44369783997535706,
          -0.6484637260437012,
          -0.8032282590866089,
          -0.7962586283683777,
          -0.339651882648468,
          -0.7405210137367249,
          -0.8167330622673035,
          -0.1139935851097107,
          -0.6203165650367737,
          -0.550573468208313,
          -0.37336239218711853,
          -0.2542523145675659,
          0.12863533198833466,
          -0.7982872724533081,
          -0.41338416934013367,
          -0.6350640654563904,
          -0.9156209230422974,
          0.36467665433883667
        ]
      },
      "cellActivationMatrix": {
        "rows": 20,
        "columns": 18,
        "weights": [
          0.03240980952978134,
          0.19071686267852783,
          -0.6692313551902771,
          -0.7005717158317566,
          0.4834060072898865,
          -0.6464362740516663,
          -0.10890764743089676,
          0.561511218547821,
          0.576431930065155,
          -0.5628268718719482,
          0.5860114693641663,
          -0.47941896319389343,
          -0.4757419526576996,
          -0.46035221219062805,
          0.6548470258712769,
          -0.03833077847957611,
          -0.47304853796958923,
          0.10312081128358841,
          -0.1373109668493271,
          0.27044981718063354,
          -0.007711800746619701,
          0.23222145438194275,
          -0.7188848853111267,
          0.7493827939033508,
          -0.35996100306510925,
          -0.4801162779331207,
          -0.6290518641471863,
          0.7067915201187134,
          -0.6178490519523621,
          0.6965515613555908,
          0.6079850792884827,
          0.8356523513793945,
          -0.22540408372879028,
          -0.19434754550457,
          0.35942786931991577,
          0.025679484009742737,
          -0.19979561865329742,
          -0.07150935381650925,
          0.8710214495658875,
          0.3590880334377289,
          -0.06066163629293442,
          0.13293682038784027,
          -0.07368019968271255,
          -0.6742619872093201,
          -0.12672846019268036,
          0.0038688501808792353,
          -0.6055764555931091,
          0.366080105304718,
          0.2937064468860626,
          0.20886632800102234,
          -0.6118882894515991,
          -0.22684834897518158,
          0.7830456495285034,
          0.14138498902320862,
          -0.05239007994532585,
          -0.1555483043193817,
          0.6563969850540161,
          0.5896786451339722,
          -0.5985750555992126,
          0.6198897361755371,
          -0.03919816389679909,
          -0.498717337846756,
          -0.6173932552337646,
          0.5280928015708923,
          -0.4891626238822937,
          0.5459778904914856,
          0.4706493020057678,
          0.5178257822990417,
          -0.5069986581802368,
          0.006830793805420399,
          0.49674192070961,
          -0.043670427054166794,
          -0.9347887635231018,
          0.8613419532775879,
          -0.4177524745464325,
          -0.47214651107788086,
          0.22486618161201477,
          0.09461308270692825,
          -1.0675480365753174,
          0.3372085392475128,
          0.1259797215461731,
          -0.20865516364574432,
          0.17632532119750977,
          -0.12211140990257263,
          -0.3061860501766205,
          -0.00822299625724554,
          0.3386602997779846,
          -0.9197868704795837,
          -0.31893762946128845,
          -0.8722710013389587,
          -1.0114285945892334,
          1.204901933670044,
          -0.3457694351673126,
          -0.7152326107025146,
          0.06739520281553268,
          0.2165699005126953,
          -1.302802562713623,
          0.16413241624832153,
          -0.14926183223724365,
          -0.08932159841060638,
          0.22239086031913757,
          -0.060080453753471375,
          -0.18831121921539307,
          0.22534209489822388,
          0.3064582645893097,
          -0.9590110778808594,
          -0.1406218409538269,
          -1.0011048316955566,
          0.013309803791344166,
          -0.3461513817310333,
          0.7147334218025208,
          0.6946280598640442,
          -0.5407953262329102,
          0.5163756608963013,
          0.19179044663906097,
          -0.5568323731422424,
          -0.5203497409820557,
          0.43623360991477966,
          -0.5189206600189209,
          0.40288880467414856,
          0.5839332938194275,
          0.5340525507926941,
          -0.6589359641075134,
          0.10195795446634293,
          0.5513232946395874,
          -0.2512814402580261,
          -0.20706428587436676,
          0.20256832242012024,
          0.12830060720443726,
          0.05926627293229103,
          -0.6101674437522888,
          0.7744226455688477,
          -0.24423450231552124,
          -0.5805743336677551,
          -0.6122419834136963,
          0.5662965774536133,
          -0.4868634045124054,
          0.7219420671463013,
          0.43113791942596436,
          0.7667787075042725,
          -0.2962561249732971,
          -0.2372252196073532,
          0.41916683316230774,
          -0.1617201268672943,
          1.044599175453186,
          -1.2094296216964722,
          0.40461331605911255,
          0.6919295191764832,
          -0.02852466143667698,
          -0.16181911528110504,
          1.2061125040054321,
          -0.16722151637077332,
          -0.007189546711742878,
          0.178182914853096,
          -0.26450222730636597,
          0.08063673973083496,
          0.16703668236732483,
          -0.08973829448223114,
          -0.22150856256484985,
          0.9522616267204285,
          0.2860115170478821,
          1.0234655141830444,
          -0.08470159024000168,
          0.4157196283340454,
          -0.08705134689807892,
          0.1603766679763794,
          -0.6078096628189087,
          0.7258584499359131,
          -0.17743836343288422,
          -0.37345290184020996,
          -0.6660294532775879,
          0.7468373775482178,
          -0.5571868419647217,
          0.5890657305717468,
          0.4791131913661957,
          0.7357243895530701,
          -0.08747619390487671,
          -0.21533872187137604,
          0.2518002390861511,
          0.04225614666938782,
          0.87613445520401,
          -0.9702426195144653,
          0.48967406153678894,
          0.8085725903511047,
          -0.11703064292669296,
          -0.021122781559824944,
          1.0000580549240112,
          -0.15280793607234955,
          0.002093678805977106,
          0.07715686410665512,
          -0.24831752479076385,
          0.1428653597831726,
          0.219032421708107,
          -0.05324934422969818,
          -0.3724624812602997,
          0.8825570344924927,
          0.3188343048095703,
          0.8625361919403076,
          -0.08743896335363388,
          0.27859875559806824,
          0.18817433714866638,
          -0.2530466616153717,
          -0.6768530011177063,
          0.678512454032898,
          -0.29307547211647034,
          -0.7462955713272095,
          -0.8375025987625122,
          0.7640063762664795,
          -0.6073753833770752,
          0.8732498288154602,
          0.6182860732078552,
          0.9610424637794495,
          -0.3995656669139862,
          -0.12597601115703583,
          0.7152297496795654,
          0.03551403433084488,
          -0.10994651913642883,
          0.3785810172557831,
          0.30231523513793945,
          -0.3961964249610901,
          -0.8503530621528625,
          0.572571873664856,
          -0.30456218123435974,
          -0.7175074219703674,
          -0.874048113822937,
          0.778446614742279,
          -0.28864869475364685,
          0.9269281029701233,
          0.8153244853019714,
          0.8605556488037109,
          -0.3374520242214203,
          -0.427315354347229,
          0.7833261489868164,
          0.42429447174072266,
          0.2281176596879959,
          -0.43594107031822205,
          0.8165907859802246,
          0.839591920375824,
          -0.4475247263908386,
          0.586681604385376,
          0.38962680101394653,
          -0.671826183795929,
          -0.42850032448768616,
          0.5351372957229614,
          -0.8979977965354919,
          0.4734610617160797,
          0.4338895380496979,
          0.6300026774406433,
          -0.9030766487121582,
          0.20020073652267456,
          0.48710161447525024,
          -0.288209468126297,
          -0.09272745996713638,
          -0.2358422577381134,
          -0.09145303815603256,
          0.14410851895809174,
          0.9576014876365662,
          -0.8485161662101746,
          0.026108840480446815,
          0.47920486330986023,
          0.8298966288566589,
          -0.9687267541885376,
          0.44307368993759155,
          -0.8652135133743286,
          -0.6352766752243042,
          -0.8904847502708435,
          0.16594238579273224,
          0.05749928578734398,
          -0.6605513691902161,
          -0.38042762875556946,
          0.9071297645568848,
          -0.9458935856819153,
          0.440492182970047,
          0.9048646092414856,
          -0.10592550039291382,
          -0.010392372496426105,
          1.080739140510559,
          -0.2544224262237549,
          -0.13256417214870453,
          0.16861437261104584,
          -0.23772506415843964,
          0.13608147203922272,
          0.21146981418132782,
          -0.06924030929803848,
          -0.3216327428817749,
          0.9507920742034912,
          0.22820419073104858,
          0.7843235731124878,
          -0.04693353548645973,
          0.23517481982707977,
          -0.3485943078994751,
          -0.6386645436286926,
          0.4665570855140686,
          -0.6275430917739868,
          -0.46410179138183594,
          0.46129173040390015,
          0.49238353967666626,
          -0.5294144153594971,
          0.3828294277191162,
          -0.45390409231185913,
          -0.40543466806411743,
          -0.4073978364467621,
          0.5374279022216797,
          -0.17526395618915558,
          -0.4483737647533417,
          0.06062045320868492,
          0.12396097183227539,
          -0.3301932215690613,
          -0.1348949521780014,
          -0.18933825194835663,
          0.704716145992279,
          -0.7626282572746277,
          0.29034024477005005,
          0.5682815909385681,
          0.6029218435287476,
          -0.5943514704704285,
          0.4961974620819092,
          -0.6848639845848083,
          -0.47790783643722534,
          -0.7727136015892029,
          0.1277187317609787,
          0.11766323447227478,
          -0.3015841245651245,
          0.12342526018619537,
          0.9358726739883423,
          -1.0148169994354248,
          0.27499836683273315,
          0.6361446976661682,
          -0.11963114142417908,
          -0.002983050188049674,
          1.0962185859680176,
          -0.11318976432085037,
          -0.10705257207155228,
          0.11351818591356277,
          -0.23637478053569794,
          0.05455794557929039,
          0.1475379317998886,
          0.04661303758621216,
          -0.27109089493751526,
          1.0502872467041016,
          0.14923396706581116,
          0.9371213316917419,
          -0.4374392628669739,
          0.4818037748336792,
          -0.17286469042301178,
          -0.045777589082717896,
          0.2701147496700287,
          -0.029920469969511032,
          -0.4727678894996643,
          0.07970481365919113,
          0.16989514231681824,
          -0.37470686435699463,
          -0.05715157091617584,
          -0.25272148847579956,
          -0.5094990134239197,
          -0.08745037764310837,
          -0.06323378533124924,
          -0.2198108285665512,
          -0.4683733880519867,
          -0.8339319825172424
        ]
      },
      "cellActivationHidden": {
        "rows": 20,
        "columns": 20,
        "weights": [
          0.5644331574440002,
          0.17485669255256653,
          0.17661330103874207,
          -0.5010114312171936,
          0.05642818287014961,
          0.22881901264190674,
          -0.48132985830307007,
          0.1883859485387802,
          -0.19178801774978638,
          0.1005752831697464,
          -0.00729517824947834,
          0.28774136304855347,
          0.04146736115217209,
          -0.5750035047531128,
          -0.10918956995010376,
          -0.1440286785364151,
          0.5019927024841309,
          -0.2517816722393036,
          -0.07356061786413193,
          -0.14370854198932648,
          0.07527568936347961,
          -0.04017872363328934,
          0.03414161130785942,
          0.07395301759243011,
          -0.5363443493843079,
          -0.2771470844745636,
          -0.012859035283327103,
          0.042392294853925705,
          0.2253076583147049,
          -0.08634194731712341,
          0.47070205211639404,
          0.03323567658662796,
          0.056210167706012726,
          -0.06475761532783508,
          0.016203781589865685,
          0.4329219460487366,
          -0.04298769682645798,
          0.1282583326101303,
          0.5006341338157654,
          0.06590592861175537,
          -0.4477764070034027,
          0.07417542487382889,
          -0.042634010314941406,
          0.43984517455101013,
          -0.6092700362205505,
          -0.6625669598579407,
          0.4811464846134186,
          -0.07022104412317276,
          0.5969155430793762,
          0.02893872931599617,
          0.4983603358268738,
          0.07815702259540558,
          0.137862429022789,
          0.32279717922210693,
          -0.10086329281330109,
          0.37565305829048157,
          -0.4055062532424927,
          -0.06764291226863861,
          0.6042391061782837,
          -0.9164223670959473,
